<?xml version="1.0"?>
<opencv_storage>
<cascade>
  <stageType>BOOST</stageType>
  <featureType>HAAR</featureType>
  <height>30</height>
  <width>30</width>
  <stageParams>
    <boostType>GAB</boostType>
    <minHitRate>9.9500000476837158e-01</minHitRate>
    <maxFalseAlarm>5.0000000000000000e-01</maxFalseAlarm>
    <weightTrimRate>9.4999999999999996e-01</weightTrimRate>
    <maxDepth>1</maxDepth>
    <maxWeakCount>100</maxWeakCount></stageParams>
  <featureParams>
    <maxCatCount>0</maxCatCount>
    <featSize>1</featSize>
    <mode>BASIC</mode></featureParams>
  <stageNum>9</stageNum>
  <stages>
    <!-- stage 0 -->
    <_>
      <maxWeakCount>5</maxWeakCount>
      <stageThreshold>-8.5920679569244385e-01</stageThreshold>
      <weakClassifiers>
        <_>
          <internalNodes>
            0 -1 52 3.2619323581457138e-02</internalNodes>
          <leafValues>
            -7.2649574279785156e-01 8.1395345926284790e-01</leafValues></_>
        <_>
          <internalNodes>
            0 -1 28 -1.8890794366598129e-02</internalNodes>
          <leafValues>
            6.4137017726898193e-01 -7.3422640562057495e-01</leafValues></_>
        <_>
          <internalNodes>
            0 -1 0 1.0862788185477257e-02</internalNodes>
          <leafValues>
            -5.5090206861495972e-01 6.2327241897583008e-01</leafValues></_>
        <_>
          <internalNodes>
            0 -1 25 9.3456980539485812e-04</internalNodes>
          <leafValues>
            3.7535229325294495e-01 -6.6059058904647827e-01</leafValues></_>
        <_>
          <internalNodes>
            0 -1 19 -2.8937973082065582e-02</internalNodes>
          <leafValues>
            6.3883352279663086e-01 -3.7114390730857849e-01</leafValues></_></weakClassifiers></_>
    <!-- stage 1 -->
    <_>
      <maxWeakCount>7</maxWeakCount>
      <stageThreshold>-8.9788043498992920e-01</stageThreshold>
      <weakClassifiers>
        <_>
          <internalNodes>
            0 -1 60 -2.7979331091046333e-02</internalNodes>
          <leafValues>
            7.5249499082565308e-01 -5.1004016399383545e-01</leafValues></_>
        <_>
          <internalNodes>
            0 -1 24 4.7102816402912140e-02</internalNodes>
          <leafValues>
            -4.5571750402450562e-01 6.3012230396270752e-01</leafValues></_>
        <_>
          <internalNodes>
            0 -1 3 6.0890205204486847e-03</internalNodes>
          <leafValues>
            -4.2701154947280884e-01 5.4454141855239868e-01</leafValues></_>
        <_>
          <internalNodes>
            0 -1 20 -2.4286057800054550e-02</internalNodes>
          <leafValues>
            4.8545786738395691e-01 -4.7386696934700012e-01</leafValues></_>
        <_>
          <internalNodes>
            0 -1 37 6.9101685658097267e-03</internalNodes>
          <leafValues>
            2.6039943099021912e-01 -8.9066547155380249e-01</leafValues></_>
        <_>
          <internalNodes>
            0 -1 78 5.8983089402318001e-03</internalNodes>
          <leafValues>
            -3.7495881319046021e-01 5.3577536344528198e-01</leafValues></_>
        <_>
          <internalNodes>
            0 -1 44 -1.4961788430809975e-02</internalNodes>
          <leafValues>
            -9.2200487852096558e-01 1.8921539187431335e-01</leafValues></_></weakClassifiers></_>
    <!-- stage 2 -->
    <_>
      <maxWeakCount>9</maxWeakCount>
      <stageThreshold>-1.3824068307876587e+00</stageThreshold>
      <weakClassifiers>
        <_>
          <internalNodes>
            0 -1 61 9.1009512543678284e-03</internalNodes>
          <leafValues>
            -6.3508772850036621e-01 6.6190475225448608e-01</leafValues></_>
        <_>
          <internalNodes>
            0 -1 8 8.1604085862636566e-03</internalNodes>
          <leafValues>
            -5.9617727994918823e-01 4.8672109842300415e-01</leafValues></_>
        <_>
          <internalNodes>
            0 -1 70 2.8462272137403488e-02</internalNodes>
          <leafValues>
            -3.6693426966667175e-01 7.3093891143798828e-01</leafValues></_>
        <_>
          <internalNodes>
            0 -1 49 1.7888784408569336e-02</internalNodes>
          <leafValues>
            2.5710338354110718e-01 -8.9832180738449097e-01</leafValues></_>
        <_>
          <internalNodes>
            0 -1 34 4.5796064659953117e-03</internalNodes>
          <leafValues>
            1.8093769252300262e-01 -8.3867728710174561e-01</leafValues></_>
        <_>
          <internalNodes>
            0 -1 21 -4.2015358805656433e-02</internalNodes>
          <leafValues>
            4.0503311157226562e-01 -4.5770981907844543e-01</leafValues></_>
        <_>
          <internalNodes>
            0 -1 5 6.6964076831936836e-03</internalNodes>
          <leafValues>
            -4.3680959939956665e-01 3.8998693227767944e-01</leafValues></_>
        <_>
          <internalNodes>
            0 -1 39 -1.7861561849713326e-02</internalNodes>
          <leafValues>
            -8.9280939102172852e-01 1.8261277675628662e-01</leafValues></_>
        <_>
          <internalNodes>
            0 -1 40 -1.8840699922293425e-03</internalNodes>
          <leafValues>
            3.8852253556251526e-01 -4.3636834621429443e-01</leafValues></_></weakClassifiers></_>
    <!-- stage 3 -->
    <_>
      <maxWeakCount>9</maxWeakCount>
      <stageThreshold>-1.1474899053573608e+00</stageThreshold>
      <weakClassifiers>
        <_>
          <internalNodes>
            0 -1 12 -9.3583576381206512e-03</internalNodes>
          <leafValues>
            6.5542614459991455e-01 -5.1534736156463623e-01</leafValues></_>
        <_>
          <internalNodes>
            0 -1 84 3.0513713136315346e-02</internalNodes>
          <leafValues>
            -4.2320254445075989e-01 6.8259149789810181e-01</leafValues></_>
        <_>
          <internalNodes>
            0 -1 56 -5.0685619935393333e-03</internalNodes>
          <leafValues>
            3.1480255722999573e-01 -8.1398087739944458e-01</leafValues></_>
        <_>
          <internalNodes>
            0 -1 32 -3.5036072134971619e-02</internalNodes>
          <leafValues>
            4.9649533629417419e-01 -4.5654147863388062e-01</leafValues></_>
        <_>
          <internalNodes>
            0 -1 1 1.4382516033947468e-02</internalNodes>
          <leafValues>
            -3.7719249725341797e-01 5.8975881338119507e-01</leafValues></_>
        <_>
          <internalNodes>
            0 -1 82 -1.3848188333213329e-02</internalNodes>
          <leafValues>
            7.1810501813888550e-01 -2.6953247189521790e-01</leafValues></_>
        <_>
          <internalNodes>
            0 -1 48 -1.6634895000606775e-03</internalNodes>
          <leafValues>
            3.2501867413520813e-01 -5.9130948781967163e-01</leafValues></_>
        <_>
          <internalNodes>
            0 -1 45 1.2439080514013767e-02</internalNodes>
          <leafValues>
            1.4136464893817902e-01 -9.1013747453689575e-01</leafValues></_>
        <_>
          <internalNodes>
            0 -1 50 -1.1481937021017075e-02</internalNodes>
          <leafValues>
            -8.5381072759628296e-01 1.5551948547363281e-01</leafValues></_></weakClassifiers></_>
    <!-- stage 4 -->
    <_>
      <maxWeakCount>11</maxWeakCount>
      <stageThreshold>-1.3380634784698486e+00</stageThreshold>
      <weakClassifiers>
        <_>
          <internalNodes>
            0 -1 68 1.9905284047126770e-02</internalNodes>
          <leafValues>
            -3.3583021163940430e-01 7.0324361324310303e-01</leafValues></_>
        <_>
          <internalNodes>
            0 -1 10 3.7941940128803253e-02</internalNodes>
          <leafValues>
            -5.3644049167633057e-01 5.2946788072586060e-01</leafValues></_>
        <_>
          <internalNodes>
            0 -1 4 7.3145879432559013e-03</internalNodes>
          <leafValues>
            -4.4416043162345886e-01 5.3100150823593140e-01</leafValues></_>
        <_>
          <internalNodes>
            0 -1 62 5.1926276646554470e-03</internalNodes>
          <leafValues>
            -2.6791486144065857e-01 6.9901460409164429e-01</leafValues></_>
        <_>
          <internalNodes>
            0 -1 63 7.3533412069082260e-03</internalNodes>
          <leafValues>
            -2.3664832115173340e-01 7.6181536912918091e-01</leafValues></_>
        <_>
          <internalNodes>
            0 -1 53 -2.0839598029851913e-02</internalNodes>
          <leafValues>
            -6.9489926099777222e-01 2.8962361812591553e-01</leafValues></_>
        <_>
          <internalNodes>
            0 -1 57 -3.8710215594619513e-03</internalNodes>
          <leafValues>
            2.4311113357543945e-01 -7.6936173439025879e-01</leafValues></_>
        <_>
          <internalNodes>
            0 -1 76 -3.3057540655136108e-02</internalNodes>
          <leafValues>
            7.4046623706817627e-01 -2.9396364092826843e-01</leafValues></_>
        <_>
          <internalNodes>
            0 -1 33 -1.6937902197241783e-02</internalNodes>
          <leafValues>
            3.8268122076988220e-01 -4.7295334935188293e-01</leafValues></_>
        <_>
          <internalNodes>
            0 -1 72 -9.4036916270852089e-03</internalNodes>
          <leafValues>
            4.9089145660400391e-01 -3.4433040022850037e-01</leafValues></_>
        <_>
          <internalNodes>
            0 -1 46 -8.9981989003717899e-04</internalNodes>
          <leafValues>
            -8.5918307304382324e-01 1.7278602719306946e-01</leafValues></_></weakClassifiers></_>
    <!-- stage 5 -->
    <_>
      <maxWeakCount>11</maxWeakCount>
      <stageThreshold>-1.2185982465744019e+00</stageThreshold>
      <weakClassifiers>
        <_>
          <internalNodes>
            0 -1 2 9.7821224480867386e-03</internalNodes>
          <leafValues>
            -2.8789660334587097e-01 7.1122229099273682e-01</leafValues></_>
        <_>
          <internalNodes>
            0 -1 81 -8.6651351302862167e-03</internalNodes>
          <leafValues>
            6.1849665641784668e-01 -3.5903358459472656e-01</leafValues></_>
        <_>
          <internalNodes>
            0 -1 51 -1.6092429868876934e-03</internalNodes>
          <leafValues>
            5.9114938974380493e-01 -3.6715981364250183e-01</leafValues></_>
        <_>
          <internalNodes>
            0 -1 22 -9.3316994607448578e-03</internalNodes>
          <leafValues>
            4.0431290864944458e-01 -5.5182540416717529e-01</leafValues></_>
        <_>
          <internalNodes>
            0 -1 65 -1.7418148927390575e-03</internalNodes>
          <leafValues>
            6.3727343082427979e-01 -3.2476204633712769e-01</leafValues></_>
        <_>
          <internalNodes>
            0 -1 38 -7.1060640038922429e-04</internalNodes>
          <leafValues>
            2.8968915343284607e-01 -6.7434799671173096e-01</leafValues></_>
        <_>
          <internalNodes>
            0 -1 29 -1.4642329886555672e-02</internalNodes>
          <leafValues>
            -8.3779323101043701e-01 2.3601320385932922e-01</leafValues></_>
        <_>
          <internalNodes>
            0 -1 17 -2.2249338217079639e-03</internalNodes>
          <leafValues>
            4.2522197961807251e-01 -4.0270036458969116e-01</leafValues></_>
        <_>
          <internalNodes>
            0 -1 75 -1.4795979950577021e-03</internalNodes>
          <leafValues>
            5.9284192323684692e-01 -2.6039960980415344e-01</leafValues></_>
        <_>
          <internalNodes>
            0 -1 74 9.9480729550123215e-03</internalNodes>
          <leafValues>
            -2.2700515389442444e-01 6.8214797973632812e-01</leafValues></_>
        <_>
          <internalNodes>
            0 -1 9 7.9667188227176666e-02</internalNodes>
          <leafValues>
            2.0855966210365295e-01 -8.2492548227310181e-01</leafValues></_></weakClassifiers></_>
    <!-- stage 6 -->
    <_>
      <maxWeakCount>10</maxWeakCount>
      <stageThreshold>-1.0998022556304932e+00</stageThreshold>
      <weakClassifiers>
        <_>
          <internalNodes>
            0 -1 13 1.8549906089901924e-03</internalNodes>
          <leafValues>
            -3.3245381712913513e-01 6.7158174514770508e-01</leafValues></_>
        <_>
          <internalNodes>
            0 -1 77 8.6582154035568237e-03</internalNodes>
          <leafValues>
            -3.5276365280151367e-01 6.3394051790237427e-01</leafValues></_>
        <_>
          <internalNodes>
            0 -1 42 -8.9349607005715370e-03</internalNodes>
          <leafValues>
            -7.2780227661132812e-01 2.8837719559669495e-01</leafValues></_>
        <_>
          <internalNodes>
            0 -1 7 1.0730100795626640e-02</internalNodes>
          <leafValues>
            -4.5239841938018799e-01 4.2858433723449707e-01</leafValues></_>
        <_>
          <internalNodes>
            0 -1 36 2.0161999855190516e-03</internalNodes>
          <leafValues>
            2.7486208081245422e-01 -6.8958002328872681e-01</leafValues></_>
        <_>
          <internalNodes>
            0 -1 67 5.5547833442687988e-02</internalNodes>
          <leafValues>
            -2.8394463658332825e-01 5.6763935089111328e-01</leafValues></_>
        <_>
          <internalNodes>
            0 -1 83 1.7107293009757996e-02</internalNodes>
          <leafValues>
            -2.4410995841026306e-01 8.1196230649948120e-01</leafValues></_>
        <_>
          <internalNodes>
            0 -1 47 -1.9284974783658981e-02</internalNodes>
          <leafValues>
            -8.4676164388656616e-01 2.3118133842945099e-01</leafValues></_>
        <_>
          <internalNodes>
            0 -1 27 1.5244267415255308e-03</internalNodes>
          <leafValues>
            -2.7911266684532166e-01 5.7052433490753174e-01</leafValues></_>
        <_>
          <internalNodes>
            0 -1 14 2.7335420250892639e-02</internalNodes>
          <leafValues>
            1.6341847181320190e-01 -8.5433292388916016e-01</leafValues></_></weakClassifiers></_>
    <!-- stage 7 -->
    <_>
      <maxWeakCount>11</maxWeakCount>
      <stageThreshold>-1.0953798294067383e+00</stageThreshold>
      <weakClassifiers>
        <_>
          <internalNodes>
            0 -1 66 9.2091886326670647e-03</internalNodes>
          <leafValues>
            -3.2663315534591675e-01 6.9463551044464111e-01</leafValues></_>
        <_>
          <internalNodes>
            0 -1 64 4.9548640847206116e-02</internalNodes>
          <leafValues>
            -5.4099279642105103e-01 4.8079103231430054e-01</leafValues></_>
        <_>
          <internalNodes>
            0 -1 16 2.1574164275079966e-03</internalNodes>
          <leafValues>
            -4.9159005284309387e-01 4.4579654932022095e-01</leafValues></_>
        <_>
          <internalNodes>
            0 -1 79 -1.3757945271208882e-03</internalNodes>
          <leafValues>
            6.7831814289093018e-01 -2.7932050824165344e-01</leafValues></_>
        <_>
          <internalNodes>
            0 -1 31 1.4247693121433258e-02</internalNodes>
          <leafValues>
            -5.3978210687637329e-01 3.0148792266845703e-01</leafValues></_>
        <_>
          <internalNodes>
            0 -1 55 -2.9747156426310539e-02</internalNodes>
          <leafValues>
            -8.5350978374481201e-01 1.7938275635242462e-01</leafValues></_>
        <_>
          <internalNodes>
            0 -1 58 -1.1598432436585426e-02</internalNodes>
          <leafValues>
            2.7281129360198975e-01 -6.6295778751373291e-01</leafValues></_>
        <_>
          <internalNodes>
            0 -1 6 8.2962326705455780e-03</internalNodes>
          <leafValues>
            -4.0703859925270081e-01 3.7678778171539307e-01</leafValues></_>
        <_>
          <internalNodes>
            0 -1 71 -1.3677924289368093e-04</internalNodes>
          <leafValues>
            4.4212055206298828e-01 -3.1612408161163330e-01</leafValues></_>
        <_>
          <internalNodes>
            0 -1 15 4.2787931859493256e-02</internalNodes>
          <leafValues>
            1.8504999577999115e-01 -7.8594839572906494e-01</leafValues></_>
        <_>
          <internalNodes>
            0 -1 23 -1.4440243132412434e-02</internalNodes>
          <leafValues>
            4.7953006625175476e-01 -3.1715399026870728e-01</leafValues></_></weakClassifiers></_>
    <!-- stage 8 -->
    <_>
      <maxWeakCount>12</maxWeakCount>
      <stageThreshold>-9.7105348110198975e-01</stageThreshold>
      <weakClassifiers>
        <_>
          <internalNodes>
            0 -1 41 -1.0822127573192120e-02</internalNodes>
          <leafValues>
            5.7788944244384766e-01 -6.2091505527496338e-01</leafValues></_>
        <_>
          <internalNodes>
            0 -1 80 6.5873429179191589e-02</internalNodes>
          <leafValues>
            -3.9686885476112366e-01 6.3160210847854614e-01</leafValues></_>
        <_>
          <internalNodes>
            0 -1 11 1.4573637396097183e-02</internalNodes>
          <leafValues>
            -5.8035641908645630e-01 3.4833064675331116e-01</leafValues></_>
        <_>
          <internalNodes>
            0 -1 30 2.6492290999158286e-05</internalNodes>
          <leafValues>
            2.6089838147163391e-01 -6.6930961608886719e-01</leafValues></_>
        <_>
          <internalNodes>
            0 -1 26 -1.2257752008736134e-02</internalNodes>
          <leafValues>
            -7.3739206790924072e-01 1.9637268781661987e-01</leafValues></_>
        <_>
          <internalNodes>
            0 -1 73 -1.8969900906085968e-02</internalNodes>
          <leafValues>
            6.4793688058853149e-01 -2.6249030232429504e-01</leafValues></_>
        <_>
          <internalNodes>
            0 -1 59 -9.4617661088705063e-03</internalNodes>
          <leafValues>
            5.2861821651458740e-01 -3.3009234070777893e-01</leafValues></_>
        <_>
          <internalNodes>
            0 -1 35 1.9655490759760141e-03</internalNodes>
          <leafValues>
            2.2769911587238312e-01 -7.3366123437881470e-01</leafValues></_>
        <_>
          <internalNodes>
            0 -1 54 -5.9320977889001369e-03</internalNodes>
          <leafValues>
            -7.1657347679138184e-01 1.7710749804973602e-01</leafValues></_>
        <_>
          <internalNodes>
            0 -1 43 -7.5166627764701843e-02</internalNodes>
          <leafValues>
            -7.5084841251373291e-01 1.5243184566497803e-01</leafValues></_>
        <_>
          <internalNodes>
            0 -1 18 -1.6155454795807600e-03</internalNodes>
          <leafValues>
            9.4402976334095001e-02 -9.3497580289840698e-01</leafValues></_>
        <_>
          <internalNodes>
            0 -1 69 -1.9784044474363327e-02</internalNodes>
          <leafValues>
            -7.6681542396545410e-01 1.6169017553329468e-01</leafValues></_></weakClassifiers></_></stages>
  <features>
    <_>
      <rects>
        <_>
          0 1 10 10 -1.</_>
        <_>
          0 1 5 5 2.</_>
        <_>
          5 6 5 5 2.</_></rects>
      <tilted>0</tilted></_>
    <_>
      <rects>
        <_>
          1 13 9 6 -1.</_>
        <_>
          4 13 3 6 3.</_></rects>
      <tilted>0</tilted></_>
    <_>
      <rects>
        <_>
          2 7 4 17 -1.</_>
        <_>
          4 7 2 17 2.</_></rects>
      <tilted>0</tilted></_>
    <_>
      <rects>
        <_>
          2 8 6 4 -1.</_>
        <_>
          5 8 3 4 2.</_></rects>
      <tilted>0</tilted></_>
    <_>
      <rects>
        <_>
          2 8 12 2 -1.</_>
        <_>
          6 8 4 2 3.</_></rects>
      <tilted>0</tilted></_>
    <_>
      <rects>
        <_>
          2 9 9 4 -1.</_>
        <_>
          5 9 3 4 3.</_></rects>
      <tilted>0</tilted></_>
    <_>
      <rects>
        <_>
          2 11 4 10 -1.</_>
        <_>
          4 11 2 10 2.</_></rects>
      <tilted>0</tilted></_>
    <_>
      <rects>
        <_>
          2 21 10 3 -1.</_>
        <_>
          7 21 5 3 2.</_></rects>
      <tilted>0</tilted></_>
    <_>
      <rects>
        <_>
          2 22 21 3 -1.</_>
        <_>
          9 22 7 3 3.</_></rects>
      <tilted>0</tilted></_>
    <_>
      <rects>
        <_>
          3 5 24 18 -1.</_>
        <_>
          3 5 12 9 2.</_>
        <_>
          15 14 12 9 2.</_></rects>
      <tilted>0</tilted></_>
    <_>
      <rects>
        <_>
          3 21 27 5 -1.</_>
        <_>
          12 21 9 5 3.</_></rects>
      <tilted>0</tilted></_>
    <_>
      <rects>
        <_>
          4 11 10 16 -1.</_>
        <_>
          4 11 5 8 2.</_>
        <_>
          9 19 5 8 2.</_></rects>
      <tilted>0</tilted></_>
    <_>
      <rects>
        <_>
          5 4 14 8 -1.</_>
        <_>
          5 4 7 4 2.</_>
        <_>
          12 8 7 4 2.</_></rects>
      <tilted>0</tilted></_>
    <_>
      <rects>
        <_>
          5 6 4 3 -1.</_>
        <_>
          7 6 2 3 2.</_></rects>
      <tilted>0</tilted></_>
    <_>
      <rects>
        <_>
          5 6 12 18 -1.</_>
        <_>
          5 15 12 9 2.</_></rects>
      <tilted>0</tilted></_>
    <_>
      <rects>
        <_>
          5 11 24 12 -1.</_>
        <_>
          5 11 12 6 2.</_>
        <_>
          17 17 12 6 2.</_></rects>
      <tilted>0</tilted></_>
    <_>
      <rects>
        <_>
          6 5 2 6 -1.</_>
        <_>
          6 8 2 3 2.</_></rects>
      <tilted>0</tilted></_>
    <_>
      <rects>
        <_>
          6 7 2 12 -1.</_>
        <_>
          6 7 1 6 2.</_>
        <_>
          7 13 1 6 2.</_></rects>
      <tilted>0</tilted></_>
    <_>
      <rects>
        <_>
          6 9 15 8 -1.</_>
        <_>
          6 13 15 4 2.</_></rects>
      <tilted>0</tilted></_>
    <_>
      <rects>
        <_>
          6 22 16 6 -1.</_>
        <_>
          6 25 16 3 2.</_></rects>
      <tilted>0</tilted></_>
    <_>
      <rects>
        <_>
          6 22 18 6 -1.</_>
        <_>
          6 25 18 3 2.</_></rects>
      <tilted>0</tilted></_>
    <_>
      <rects>
        <_>
          7 21 15 8 -1.</_>
        <_>
          7 25 15 4 2.</_></rects>
      <tilted>0</tilted></_>
    <_>
      <rects>
        <_>
          7 22 8 6 -1.</_>
        <_>
          7 25 8 3 2.</_></rects>
      <tilted>0</tilted></_>
    <_>
      <rects>
        <_>
          8 0 14 6 -1.</_>
        <_>
          8 2 14 2 3.</_></rects>
      <tilted>0</tilted></_>
    <_>
      <rects>
        <_>
          8 1 17 12 -1.</_>
        <_>
          8 5 17 4 3.</_></rects>
      <tilted>0</tilted></_>
    <_>
      <rects>
        <_>
          8 8 12 10 -1.</_>
        <_>
          14 8 6 10 2.</_></rects>
      <tilted>0</tilted></_>
    <_>
      <rects>
        <_>
          8 12 10 5 -1.</_>
        <_>
          13 12 5 5 2.</_></rects>
      <tilted>0</tilted></_>
    <_>
      <rects>
        <_>
          8 19 2 4 -1.</_>
        <_>
          8 19 1 2 2.</_>
        <_>
          9 21 1 2 2.</_></rects>
      <tilted>0</tilted></_>
    <_>
      <rects>
        <_>
          9 6 10 10 -1.</_>
        <_>
          9 11 10 5 2.</_></rects>
      <tilted>0</tilted></_>
    <_>
      <rects>
        <_>
          9 10 10 14 -1.</_>
        <_>
          14 10 5 14 2.</_></rects>
      <tilted>0</tilted></_>
    <_>
      <rects>
        <_>
          9 13 10 5 -1.</_>
        <_>
          14 13 5 5 2.</_></rects>
      <tilted>0</tilted></_>
    <_>
      <rects>
        <_>
          9 17 5 12 -1.</_>
        <_>
          9 21 5 4 3.</_></rects>
      <tilted>0</tilted></_>
    <_>
      <rects>
        <_>
          9 22 11 8 -1.</_>
        <_>
          9 26 11 4 2.</_></rects>
      <tilted>0</tilted></_>
    <_>
      <rects>
        <_>
          10 4 8 10 -1.</_>
        <_>
          10 9 8 5 2.</_></rects>
      <tilted>0</tilted></_>
    <_>
      <rects>
        <_>
          10 7 6 8 -1.</_>
        <_>
          13 7 3 8 2.</_></rects>
      <tilted>0</tilted></_>
    <_>
      <rects>
        <_>
          10 7 10 5 -1.</_>
        <_>
          15 7 5 5 2.</_></rects>
      <tilted>0</tilted></_>
    <_>
      <rects>
        <_>
          10 7 10 11 -1.</_>
        <_>
          15 7 5 11 2.</_></rects>
      <tilted>0</tilted></_>
    <_>
      <rects>
        <_>
          10 7 6 14 -1.</_>
        <_>
          10 14 6 7 2.</_></rects>
      <tilted>0</tilted></_>
    <_>
      <rects>
        <_>
          10 8 8 9 -1.</_>
        <_>
          14 8 4 9 2.</_></rects>
      <tilted>0</tilted></_>
    <_>
      <rects>
        <_>
          10 11 12 6 -1.</_>
        <_>
          14 11 4 6 3.</_></rects>
      <tilted>0</tilted></_>
    <_>
      <rects>
        <_>
          10 21 16 2 -1.</_>
        <_>
          10 21 8 1 2.</_>
        <_>
          18 22 8 1 2.</_></rects>
      <tilted>0</tilted></_>
    <_>
      <rects>
        <_>
          11 5 8 8 -1.</_>
        <_>
          11 9 8 4 2.</_></rects>
      <tilted>0</tilted></_>
    <_>
      <rects>
        <_>
          11 6 12 15 -1.</_>
        <_>
          17 6 6 15 2.</_></rects>
      <tilted>0</tilted></_>
    <_>
      <rects>
        <_>
          11 7 9 15 -1.</_>
        <_>
          11 12 9 5 3.</_></rects>
      <tilted>0</tilted></_>
    <_>
      <rects>
        <_>
          12 3 6 20 -1.</_>
        <_>
          15 3 3 20 2.</_></rects>
      <tilted>0</tilted></_>
    <_>
      <rects>
        <_>
          12 3 8 12 -1.</_>
        <_>
          16 3 4 12 2.</_></rects>
      <tilted>0</tilted></_>
    <_>
      <rects>
        <_>
          12 4 3 3 -1.</_>
        <_>
          13 4 1 3 3.</_></rects>
      <tilted>0</tilted></_>
    <_>
      <rects>
        <_>
          12 4 9 23 -1.</_>
        <_>
          15 4 3 23 3.</_></rects>
      <tilted>0</tilted></_>
    <_>
      <rects>
        <_>
          12 5 2 8 -1.</_>
        <_>
          12 9 2 4 2.</_></rects>
      <tilted>0</tilted></_>
    <_>
      <rects>
        <_>
          12 5 4 20 -1.</_>
        <_>
          12 15 4 10 2.</_></rects>
      <tilted>0</tilted></_>
    <_>
      <rects>
        <_>
          12 10 8 12 -1.</_>
        <_>
          16 10 4 12 2.</_></rects>
      <tilted>0</tilted></_>
    <_>
      <rects>
        <_>
          12 10 5 3 -1.</_>
        <_>
          12 11 5 1 3.</_></rects>
      <tilted>0</tilted></_>
    <_>
      <rects>
        <_>
          12 14 10 15 -1.</_>
        <_>
          12 19 10 5 3.</_></rects>
      <tilted>0</tilted></_>
    <_>
      <rects>
        <_>
          13 3 3 22 -1.</_>
        <_>
          13 14 3 11 2.</_></rects>
      <tilted>0</tilted></_>
    <_>
      <rects>
        <_>
          13 6 6 16 -1.</_>
        <_>
          16 6 3 16 2.</_></rects>
      <tilted>0</tilted></_>
    <_>
      <rects>
        <_>
          13 6 5 10 -1.</_>
        <_>
          13 11 5 5 2.</_></rects>
      <tilted>0</tilted></_>
    <_>
      <rects>
        <_>
          13 7 5 12 -1.</_>
        <_>
          13 13 5 6 2.</_></rects>
      <tilted>0</tilted></_>
    <_>
      <rects>
        <_>
          13 8 4 10 -1.</_>
        <_>
          13 13 4 5 2.</_></rects>
      <tilted>0</tilted></_>
    <_>
      <rects>
        <_>
          14 6 6 10 -1.</_>
        <_>
          14 11 6 5 2.</_></rects>
      <tilted>0</tilted></_>
    <_>
      <rects>
        <_>
          14 13 5 6 -1.</_>
        <_>
          14 15 5 2 3.</_></rects>
      <tilted>0</tilted></_>
    <_>
      <rects>
        <_>
          14 13 14 12 -1.</_>
        <_>
          14 13 7 6 2.</_>
        <_>
          21 19 7 6 2.</_></rects>
      <tilted>0</tilted></_>
    <_>
      <rects>
        <_>
          14 14 6 8 -1.</_>
        <_>
          14 18 6 4 2.</_></rects>
      <tilted>0</tilted></_>
    <_>
      <rects>
        <_>
          15 10 2 6 -1.</_>
        <_>
          15 12 2 2 3.</_></rects>
      <tilted>0</tilted></_>
    <_>
      <rects>
        <_>
          15 12 4 6 -1.</_>
        <_>
          15 14 4 2 3.</_></rects>
      <tilted>0</tilted></_>
    <_>
      <rects>
        <_>
          15 13 10 15 -1.</_>
        <_>
          15 18 10 5 3.</_></rects>
      <tilted>0</tilted></_>
    <_>
      <rects>
        <_>
          16 14 3 2 -1.</_>
        <_>
          16 15 3 1 2.</_></rects>
      <tilted>0</tilted></_>
    <_>
      <rects>
        <_>
          18 2 5 9 -1.</_>
        <_>
          18 5 5 3 3.</_></rects>
      <tilted>0</tilted></_>
    <_>
      <rects>
        <_>
          18 8 12 16 -1.</_>
        <_>
          22 8 4 16 3.</_></rects>
      <tilted>0</tilted></_>
    <_>
      <rects>
        <_>
          19 3 8 14 -1.</_>
        <_>
          19 3 4 7 2.</_>
        <_>
          23 10 4 7 2.</_></rects>
      <tilted>0</tilted></_>
    <_>
      <rects>
        <_>
          19 10 9 10 -1.</_>
        <_>
          19 15 9 5 2.</_></rects>
      <tilted>0</tilted></_>
    <_>
      <rects>
        <_>
          20 4 8 12 -1.</_>
        <_>
          20 4 4 6 2.</_>
        <_>
          24 10 4 6 2.</_></rects>
      <tilted>0</tilted></_>
    <_>
      <rects>
        <_>
          20 15 2 1 -1.</_>
        <_>
          21 15 1 1 2.</_></rects>
      <tilted>0</tilted></_>
    <_>
      <rects>
        <_>
          20 19 2 10 -1.</_>
        <_>
          20 24 2 5 2.</_></rects>
      <tilted>0</tilted></_>
    <_>
      <rects>
        <_>
          21 2 8 10 -1.</_>
        <_>
          21 2 4 5 2.</_>
        <_>
          25 7 4 5 2.</_></rects>
      <tilted>0</tilted></_>
    <_>
      <rects>
        <_>
          22 10 6 4 -1.</_>
        <_>
          25 10 3 4 2.</_></rects>
      <tilted>0</tilted></_>
    <_>
      <rects>
        <_>
          23 9 4 1 -1.</_>
        <_>
          25 9 2 1 2.</_></rects>
      <tilted>0</tilted></_>
    <_>
      <rects>
        <_>
          23 10 6 11 -1.</_>
        <_>
          26 10 3 11 2.</_></rects>
      <tilted>0</tilted></_>
    <_>
      <rects>
        <_>
          23 13 6 5 -1.</_>
        <_>
          25 13 2 5 3.</_></rects>
      <tilted>0</tilted></_>
    <_>
      <rects>
        <_>
          23 15 2 9 -1.</_>
        <_>
          23 18 2 3 3.</_></rects>
      <tilted>0</tilted></_>
    <_>
      <rects>
        <_>
          23 17 2 4 -1.</_>
        <_>
          23 17 1 2 2.</_>
        <_>
          24 19 1 2 2.</_></rects>
      <tilted>0</tilted></_>
    <_>
      <rects>
        <_>
          24 1 4 27 -1.</_>
        <_>
          24 10 4 9 3.</_></rects>
      <tilted>0</tilted></_>
    <_>
      <rects>
        <_>
          24 7 6 6 -1.</_>
        <_>
          27 7 3 6 2.</_></rects>
      <tilted>0</tilted></_>
    <_>
      <rects>
        <_>
          24 9 4 10 -1.</_>
        <_>
          26 9 2 10 2.</_></rects>
      <tilted>0</tilted></_>
    <_>
      <rects>
        <_>
          24 10 4 8 -1.</_>
        <_>
          26 10 2 8 2.</_></rects>
      <tilted>0</tilted></_>
    <_>
      <rects>
        <_>
          25 1 2 27 -1.</_>
        <_>
          25 10 2 9 3.</_></rects>
      <tilted>0</tilted></_></features></cascade>
</opencv_storage>
